{
  "format": "neuroevolution-brain",
  "version": 1,
  "shape": [
    8,
    12,
    8,
    2
  ],
  "meta": {
    "generation": 355,
    "runSeconds": 15.466666666666667
  },
  "net": {
    "layers": [
      {
        "inSize": 8,
        "outSize": 12,
        "w": [
          0.45561950344439495,
          1.7874263520388514,
          -0.9419342285055124,
          -2.04095645269195,
          3.6552869433437944,
          1.1072713986940712,
          1.3417031713724266,
          -0.49950529842545643,
          0.41527332556149976,
          0.830980857684518,
          1.9540470396049492,
          2.2381859682445926,
          -0.4428046329477656,
          -2.3207872793000983,
          1.4915850569782623,
          -2.885562301950614,
          -0.9213448851387592,
          -2.4399760185842667,
          -2.5467091348395816,
          0.10535785178757195,
          -0.18128620305117565,
          0.5291914153674757,
          -1.091209290181877,
          -0.7345556649773449,
          -0.03343723091840482,
          0.9770820543586191,
          -0.17572453330817261,
          -2.179031663736469,
          -0.962336931890378,
          -0.871890135153755,
          0.10172099893829534,
          0.27352999294441477,
          0.7845135362543861,
          -1.1109589485022835,
          -0.8070129530353011,
          1.4258667960359337,
          0.49203462909916496,
          -1.4558784058706045,
          -0.46462211566659384,
          -2.2612561664433586,
          -0.9542232725829393,
          0.9745830608015604,
          -0.3773428328796739,
          0.5168663658967334,
          0.3014249056676679,
          0.9094318141931377,
          0.5042900756523835,
          0.5521631882308994,
          -1.8889976191572946,
          -1.113914940790314,
          2.2132394653993406,
          1.1559358242545366,
          -1.5213490923981248,
          -1.8858581157656673,
          2.2394392298373207,
          0.6377954227612895,
          -0.3577032173851816,
          1.449497146261914,
          2.9858157160896024,
          0.9637821811929125,
          -2.665701329370778,
          1.0859011204961198,
          -0.1678831812068602,
          1.4529240574392919,
          0.277108957738311,
          0.7168814392176536,
          -0.2488819385736419,
          -0.6500220316284434,
          1.17398134686987,
          -2.124932919056722,
          0.7239826660099717,
          -2.492426533925124,
          0.6521936873289589,
          0.2095797666373475,
          2.4558077804031946,
          -0.8774515505661078,
          -2.4314487441110124,
          3.596286927761078,
          0.6991564636413252,
          0.4442992218989519,
          -0.013888204524490078,
          -1.2781066496638132,
          2.9849574417316167,
          -0.4375898241218979,
          -0.17403540682191476,
          -0.45150954938981436,
          0.9987114341014076,
          0.24545414070465382,
          1.8087501061848381,
          4.658082410728653,
          0.6607270761375985,
          0.21940418217517293,
          -0.43027322759472747,
          0.31602364336433353,
          -0.6223459611221234,
          1.6164334946609449
        ],
        "b": [
          0.1153834890674954,
          0.45751203438465127,
          0.16226514735644687,
          0.965278247371316,
          -0.5625595698866921,
          2.7022701373344744,
          0.6246708948377192,
          -1.2483590792441708,
          0.588503967460007,
          -0.04220272384209489,
          -0.7162044790545052,
          0.525187078543932
        ]
      },
      {
        "inSize": 12,
        "outSize": 8,
        "w": [
          -0.5322582211728758,
          1.0538493003353653,
          0.5195849375691471,
          0.8821826797515195,
          -1.50005090106461,
          0.8877385594147513,
          0.1960278291231525,
          -0.26191493436649704,
          1.1403358202526768,
          -0.7809332838884333,
          2.567526150271792,
          -0.34353822126853234,
          -1.022221387573272,
          -1.3146843404509756,
          -0.7866195239501935,
          2.843544662392224,
          -0.8183704930981488,
          0.2834657615511208,
          0.4851307754104527,
          -0.27585719280746224,
          0.4161898161382771,
          0.55014405197509,
          -0.7653981904644532,
          -0.10000774646371513,
          0.09854232156836742,
          1.8771158465840143,
          -1.0476045426732674,
          1.3689161164973789,
          1.4765174372501102,
          -2.0070903229000208,
          1.1026514767591076,
          0.4064706850769997,
          0.6287797189011375,
          1.9126455758614824,
          1.2160889731553044,
          -0.3193790314809798,
          0.8338108135168332,
          -1.7616571576657793,
          -0.03350941711791382,
          -1.7309198777543149,
          0.9908292877578144,
          0.9416126254594627,
          -1.147171460605883,
          0.3844146878418906,
          0.5745220008840382,
          -1.6537728715208555,
          -0.5867172875034709,
          0.26047144641709413,
          3.139167000754479,
          -2.316022487303952,
          1.1691394054245046,
          -0.6561327121151264,
          0.49079844545327256,
          0.5017542950700613,
          -0.8095194619230465,
          -2.398283947699153,
          -1.2568513015307285,
          -1.8025317336503088,
          -0.35817586333702145,
          -0.03690644428396769,
          -1.2876994278766403,
          -1.306149785300732,
          1.8723507552097285,
          2.512222672526649,
          0.8404469568848874,
          -0.15882804562865516,
          -1.5405447664566163,
          -0.7940182901786129,
          -0.426709428051591,
          -0.22724981887889165,
          -1.554899891573744,
          -0.8262164265216086,
          0.4687717647806011,
          2.3704583117153977,
          -0.3658707743731777,
          -0.691219028851616,
          0.3354737715392006,
          -1.401624694978613,
          -0.3806094713375933,
          -0.8253341671771319,
          -0.35206812831828904,
          1.3694234749321121,
          -0.02167178359202948,
          0.09241962744364324,
          -1.4152008701610597,
          -0.9178656773678248,
          0.7754947717794407,
          3.2435764009908437,
          2.956912274902287,
          1.2883062990614615,
          -1.2402252617010732,
          -0.6309773691375606,
          -1.0057787295701692,
          -0.9931269918873844,
          0.6284904853574209,
          1.502464209694093
        ],
        "b": [
          0.4547278376990181,
          -3.5413576180380586,
          0.7319885643811458,
          -2.2331783090307873,
          0.22472023943951538,
          1.9492322273169969,
          0.31203503368983954,
          -1.0260424409793236
        ]
      },
      {
        "inSize": 8,
        "outSize": 2,
        "w": [
          0.7827991719530698,
          -2.0375110273966683,
          -1.980161607213056,
          -1.3096942725479463,
          3.6836035400124896,
          1.4887465570383382,
          -0.5770204278539589,
          -0.23726859411641665,
          -0.6864190903110935,
          -3.7582134314407023,
          0.845438063987422,
          0.9727786376878882,
          -0.620276038021494,
          -0.7350947661435888,
          -0.07670068601408422,
          -1.0862982601556275
        ],
        "b": [
          -1.2201100481114457,
          0.48778910043260837
        ]
      }
    ]
  }
}