{
  "format": "neuroevolution-brain",
  "version": 1,
  "shape": [
    8,
    12,
    8,
    2
  ],
  "meta": {
    "generation": 443
  },
  "net": {
    "layers": [
      {
        "inSize": 8,
        "outSize": 12,
        "w": [
          1.5130550915171552,
          0.3250636529597733,
          -0.02644952477085144,
          -1.813781945693216,
          -2.1867509576098874,
          -0.7548829479438953,
          1.3429835710005205,
          -1.1363215601871617,
          -3.6200819923244945,
          1.0683433132966602,
          2.3779888919877945,
          4.738684858543168,
          0.5739734436275968,
          -0.08665056473257128,
          2.055431499419653,
          -1.8238247537794774,
          0.2840192514547758,
          -0.7791736586754523,
          -1.0886936352467935,
          -1.04319407457205,
          -1.091495485680278,
          2.050520805189052,
          0.2996750398077395,
          -0.4836305700805213,
          -3.173444742402446,
          -0.1430698493504406,
          2.3878846259037454,
          -0.6250445892145498,
          -2.0129573491802084,
          -3.6701742650449956,
          0.5888956504560656,
          -0.5936231704462056,
          3.966120013308969,
          -2.9610895886149966,
          0.1712600752151814,
          0.28552721460983865,
          0.43492356874208843,
          -2.0106684217096062,
          -3.640576946584385,
          1.2943285245917713,
          4.933876950098912,
          4.461877923417551,
          -4.646494629869016,
          -0.33670824938781807,
          0.40001408491275653,
          0.8339582258757484,
          3.26970672448227,
          0.2658543307185395,
          -0.9876702647072302,
          0.5347893922628294,
          0.056235475394021545,
          5.775281356104544,
          -0.9406928924636286,
          -1.7555832100936093,
          -2.24801765857181,
          -3.691406849641295,
          0.054950740770725315,
          -0.6392584780079822,
          2.8578122416454628,
          -0.30301989697964987,
          -3.1169340521369024,
          -0.6776076658119862,
          0.11986619946697163,
          0.18970774542105184,
          -1.1404217755350974,
          2.3011683118601973,
          -1.4611534684282148,
          -2.2032230531237755,
          2.346476076025437,
          -0.6604118113354396,
          -0.14093975342299503,
          -2.709827990330824,
          -0.5180318078867354,
          0.9893320173230886,
          4.9206824580829025,
          -0.8073936527860665,
          -2.328592286755992,
          1.279303416062219,
          0.6514163459452671,
          -0.22352937568429954,
          1.4743390244739407,
          -1.325703463444329,
          4.550398882377177,
          -1.6295413965171193,
          2.3941166798856046,
          -0.6976462206190042,
          -1.7880413399977853,
          -2.51103678228153,
          0.5044462306069777,
          1.5897281159559566,
          2.696772201745031,
          0.17077594892729353,
          -0.25121490772990096,
          5.34064577558601,
          -0.7922197213473355,
          1.939875269067953
        ],
        "b": [
          0.4479880334601912,
          -0.22594429314130976,
          -0.1949617172060642,
          1.5585769758440198,
          0.7706806202005633,
          2.380227597543693,
          0.7710300447552351,
          0.6040296690319573,
          -1.5438892021287127,
          -0.6859013675793604,
          0.585524212867962,
          -0.4670171703835311
        ]
      },
      {
        "inSize": 12,
        "outSize": 8,
        "w": [
          -2.001374431398675,
          3.2131772147630104,
          -1.7457074219758373,
          -4.325148887146915,
          -0.0030629825573230823,
          -0.7211907418114127,
          -0.7009393710848555,
          0.3813703159240154,
          -0.6172975441098686,
          0.8550251652847664,
          1.4047737521911627,
          -2.451148584586592,
          -0.7690456853507619,
          -2.4405740910525795,
          0.545195279999092,
          -0.25060628327914963,
          1.6782394361873292,
          1.2718100412007394,
          1.327559019989983,
          0.7269026149321121,
          3.155010500044887,
          3.3272178948966,
          -2.1170363899852367,
          1.4959952891842039,
          1.7907397847968718,
          0.5097173243888784,
          -0.8834179279782665,
          0.47301225037655803,
          -0.008897919595982073,
          -1.5960002429547018,
          0.041181699257530235,
          2.446680244616541,
          -0.0074696714423376775,
          3.89428573336287,
          0.11446992399635314,
          0.46072404034974934,
          2.1715159957858727,
          0.6040949377294548,
          0.3245577838925383,
          -2.7727446223525334,
          1.5517564027746613,
          -0.27728025817451074,
          1.3371622681968296,
          -1.5359032332294968,
          -0.46756873723141734,
          -2.0652766471029524,
          -1.085530635395751,
          0.5742964290509659,
          0.05946208860771773,
          -3.204219928498626,
          1.8641669518463226,
          -1.2009027043656362,
          -0.6887410829552134,
          1.6716930493491684,
          -1.1417301022451973,
          -3.611470601513315,
          -0.37965947745610573,
          -2.5745823606734017,
          0.86477878042308,
          1.2430457676793154,
          -1.6065609912513694,
          -2.4894261915851477,
          1.20353762928993,
          1.7733108807354456,
          2.8152108262540594,
          -2.0396883145372384,
          0.3971840346839709,
          -0.22778099873506988,
          0.5325969307887835,
          2.215918214936736,
          0.28835954977083533,
          -2.548539211378013,
          1.0908814450814919,
          3.969482147920095,
          1.0831011926343401,
          0.23195898324150388,
          -0.7797462473378679,
          -3.1703139138611487,
          -0.12392143956140131,
          -3.0213711397634877,
          1.1467479628643014,
          0.4834827139290221,
          0.7523744096433476,
          0.6742608989868231,
          0.8711545430110355,
          -1.9871205296013552,
          1.532699790872568,
          -2.5224305176753306,
          0.7745570994195962,
          -0.13349200800918115,
          -0.08203648643337294,
          0.7279495067591477,
          1.076845448119502,
          1.9305951107521864,
          -1.1677798868898062,
          2.9157843673827877
        ],
        "b": [
          -0.18238700525863086,
          -4.1560464039238845,
          1.5149991211176208,
          -0.2754991683687073,
          0.2863383827831385,
          -0.6590100291103168,
          0.8055050817154966,
          2.397452370842883
        ]
      },
      {
        "inSize": 8,
        "outSize": 2,
        "w": [
          -0.5856055108178828,
          -1.7536429673965348,
          -2.7219162587310164,
          2.0582883566087373,
          3.4568931360982242,
          -1.4290621080426336,
          -0.7391280334766148,
          -1.1950888567221385,
          2.5010773653095457,
          -0.27251164782885806,
          -1.458154199049128,
          0.6500636957849435,
          -2.2903349025450987,
          -2.029201982170161,
          1.1262393754623299,
          -1.272661581350386
        ],
        "b": [
          -0.9088820276487042,
          1.5074304328763772
        ]
      }
    ]
  }
}